=== Run information ===

Scheme:       weka.classifiers.trees.REPTree -M 2 -V 0.001 -N 3 -S 1 -L -1 -I 0.0
Relation:     CSV_data
Instances:    826
Attributes:   10
              CHARGEDIFFERENCE
              ENERGY
              FRAMEWORKSeqID
              FRAMEWORKSeqSIMILARITY
              HYDROPHOBICITYINDEXDIFFERENCE
              LENGTH
              LOOPSeqID
              LOOPSeqSIMILARITY
              NAME
              GOODORBAD
Test mode:    10-fold cross-validation

=== Classifier model (full training set) ===


REPTree
============
 : BAD (550/63) [276/32]

Size of the tree : 1

Time taken to build model: 0.01 seconds

=== Stratified cross-validation ===
=== Summary ===

Correctly Classified Instances         731               88.4988 %
Incorrectly Classified Instances        95               11.5012 %
Kappa statistic                          0     
Mean absolute error                      0.2036
Root mean squared error                  0.319 
Relative absolute error                 99.6108 %
Root relative squared error             99.9995 %
Total Number of Instances              826     

=== Detailed Accuracy By Class ===

                 TP Rate  FP Rate  Precision  Recall   F-Measure  MCC      ROC Area  PRC Area  Class
                 0.000    0.000    ?          0.000    ?          ?        0.486     0.112     GOOD
                 1.000    1.000    0.885      1.000    0.939      ?        0.486     0.882     BAD
Weighted Avg.    0.885    0.885    ?          0.885    ?          ?        0.486     0.793     

=== Confusion Matrix ===

   a   b   <-- classified as
   0  95 |   a = GOOD
   0 731 |   b = BAD

